Language model created by QuickLM on Wed Feb 13 15:41:59 EST 2019
Copyright (c) 1996-2010 Carnegie Mellon University and Alexander I. Rudnicky

The model is in standard ARPA format, designed by Doug Paul while he was at MITRE.

The code that was used to produce this language model is available in Open Source.
Please visit http://www.speech.cs.cmu.edu/tools/ for more information

The (fixed) discount mass is 0.5. The backoffs are computed using the ratio method.
This model based on a corpus of 3 sentences and 8 words

\data\
ngram 1=8
ngram 2=9
ngram 3=6

\1-grams:
-1.3802 4 -0.2825
-1.3802 8 -0.2825
-0.9031 </s> -0.3010
-0.9031 <s> -0.2430
-1.3802 BLOCK -0.2430
-1.3802 DIG -0.2430
-1.3802 KILL -0.2430
-1.3802 SEVEN -0.2825

\2-grams:
-0.3010 4 KILL 0.0000
-0.3010 8 DIG 0.0000
-0.7782 <s> 4 0.0000
-0.7782 <s> 8 0.0000
-0.7782 <s> SEVEN 0.0000
-0.3010 BLOCK </s> -0.3010
-0.3010 DIG </s> -0.3010
-0.3010 KILL </s> -0.3010
-0.3010 SEVEN BLOCK 0.0000

\3-grams:
-0.3010 4 KILL </s>
-0.3010 8 DIG </s>
-0.3010 <s> 4 KILL
-0.3010 <s> 8 DIG
-0.3010 <s> SEVEN BLOCK
-0.3010 SEVEN BLOCK </s>

\end\
