Language model created by QuickLM on Wed Feb 13 15:55:01 EST 2019
Copyright (c) 1996-2010 Carnegie Mellon University and Alexander I. Rudnicky

The model is in standard ARPA format, designed by Doug Paul while he was at MITRE.

The code that was used to produce this language model is available in Open Source.
Please visit http://www.speech.cs.cmu.edu/tools/ for more information

The (fixed) discount mass is 0.5. The backoffs are computed using the ratio method.
This model based on a corpus of 10 sentences and 12 words

\data\
ngram 1=12
ngram 2=20
ngram 3=10

\1-grams:
-1.7782 12 -0.2218
-1.7782 4 -0.2218
-1.7782 8 -0.2218
-0.7782 </s> -0.3010
-0.7782 <s> -0.2218
-1.7782 ACE -0.2218
-1.7782 ASSIST -0.2218
-1.7782 BLOCK -0.2218
-1.7782 DIG -0.2218
-1.7782 KILL -0.2218
-1.7782 SEVEN -0.2218
-1.7782 THIRTEEN -0.2218

\2-grams:
-0.3010 12 </s> -0.3010
-0.3010 4 </s> -0.3010
-0.3010 8 </s> -0.3010
-1.3010 <s> 12 0.0000
-1.3010 <s> 4 0.0000
-1.3010 <s> 8 0.0000
-1.3010 <s> ACE 0.0000
-1.3010 <s> ASSIST 0.0000
-1.3010 <s> BLOCK 0.0000
-1.3010 <s> DIG 0.0000
-1.3010 <s> KILL 0.0000
-1.3010 <s> SEVEN 0.0000
-1.3010 <s> THIRTEEN 0.0000
-0.3010 ACE </s> -0.3010
-0.3010 ASSIST </s> -0.3010
-0.3010 BLOCK </s> -0.3010
-0.3010 DIG </s> -0.3010
-0.3010 KILL </s> -0.3010
-0.3010 SEVEN </s> -0.3010
-0.3010 THIRTEEN </s> -0.3010

\3-grams:
-0.3010 <s> 12 </s>
-0.3010 <s> 4 </s>
-0.3010 <s> 8 </s>
-0.3010 <s> ACE </s>
-0.3010 <s> ASSIST </s>
-0.3010 <s> BLOCK </s>
-0.3010 <s> DIG </s>
-0.3010 <s> KILL </s>
-0.3010 <s> SEVEN </s>
-0.3010 <s> THIRTEEN </s>

\end\
